{
    "hidden_Weights": [
        [
            -0.13403588661354238,
            -0.1555950984656711,
            -0.3156492095704075,
            0.05434670875421741,
            -0.3399505622678478,
            0.08162758882254398,
            -0.0694154040279607
        ],
        [
            -0.1022917415930981,
            -0.1861983901072793,
            0.13588371843445732,
            -0.22356528710744697,
            0.19682988777618435,
            -0.28063740778906493,
            -0.11001937568301728
        ],
        [
            0.3180285039070767,
            0.20317533158666753,
            -0.08107637267650819,
            -0.08943434026852308,
            0.21264186314722905,
            -0.11537850547121217,
            0.04545585655876527
        ],
        [
            -0.3928814321021878,
            -0.5968631419984727,
            -0.11343779780027702,
            -0.5625731299704768,
            -1.2039946038917322,
            -0.768370134741067,
            -0.33166447416239625
        ],
        [
            0.6341875223765397,
            0.9116674995387268,
            0.14712038006724262,
            0.32905220900707793,
            0.8416414188491249,
            0.14839847223672037,
            -0.263401282193354
        ],
        [
            1.746166689241519,
            2.1152192690289673,
            -0.21075590862072913,
            1.279535176638886,
            1.610169299669575,
            1.519386063273899,
            0.002332782714335846
        ]
    ],
    "hidden_Bias": [
        -0.48661191379837154,
        -0.567293750432122,
        -0.008056524791846511,
        -0.261772392707489,
        -0.05793283591081606,
        -0.27953893545323183,
        0
    ],
    "output_Weights": [
        [
            1.9175712232290134
        ],
        [
            2.3534760595410673
        ],
        [
            0.24567627323250324
        ],
        [
            1.2892120043182438
        ],
        [
            2.057941360294005
        ],
        [
            1.6211560568869057
        ],
        [
            -0.31435781200140656
        ]
    ],
    "output_Bias": [
        -2.2398135211154635
    ]
}