{
    "hiddenWeights": [
        [
            0.3026402983798847,
            -0.3301766644391647,
            0.11916031330370352,
            0.3909663213410293,
            -0.03373815571207381
        ],
        [
            -0.3251961287269729,
            -0.30285213441630066,
            -0.3196485479282135,
            0.11322204658231878,
            0.04546698020020619
        ],
        [
            -0.015077318719368057,
            -0.03763728702844435,
            0.018764064135957582,
            -0.248885980963117,
            0.1746950214673231
        ],
        [
            0.37467805325141196,
            -0.24710000535866336,
            -1.1014603411222215,
            1.337084421446982,
            -0.7260498061169534
        ],
        [
            0.09056824484271674,
            -0.04171199122692712,
            0.7589596918299516,
            -0.7857801556448469,
            0.9209840613377765
        ],
        [
            -0.6053121679390432,
            0.18771339084734048,
            1.9017755321384013,
            -1.9607680711054647,
            1.7498893057942142
        ]
    ],
    "hiddenBias": [
        0.22298086228267142,
        -0.039105671906868866,
        -0.493164827810704,
        1.208241740856619,
        -0.13143686227235268
    ],
    "outputWeights": [
        [
            -0.6102797257067823
        ],
        [
            -0.2771693541663929
        ],
        [
            2.2612815386166867
        ],
        [
            -2.6675028754031014
        ],
        [
            1.974668987952986
        ]
    ],
    "outputBias": [
        -0.10751321635533516
    ]
}