{
    "hiddenWeights": [
        [
            0.47227222396788837,
            -0.47164269304242523,
            0.3076343880302568,
            0.1426158072679512,
            -0.7626212498572655,
            0.34688580001499864,
            0.6966766977496176,
            -0.964033117095966,
            0.6484050951392633,
            -0.852855508023823,
            0.28973834470185467,
            -0.4895947703985726,
            -0.5463296561727328,
            -0.31985696601686525,
            -0.3527094572033946,
            -0.37261652997898326,
            0.8849590849426885,
            0.41642436357673984,
            -0.8692559586122323,
            0.9364185071334945
        ],
        [
            0.6744636212622435,
            0.04262236523782369,
            -0.502955350084475,
            -0.178213922854047,
            0.5519878885720314,
            -0.09195104970856276,
            -0.14145962866523765,
            0.19689956609368237,
            -0.04334427607992551,
            0.6445526186076845,
            0.3052454911071341,
            -0.01837517423714687,
            -0.6713044990725209,
            0.5899566651156193,
            0.6779822166070377,
            -0.7245343560356947,
            0.611868965796032,
            -0.28392407538381015,
            0.5952119531372773,
            0.6926093813501737
        ],
        [
            -0.4283798880528708,
            -0.4978587879627439,
            -0.44101978580390133,
            0.2189654683279762,
            0.9525216062356227,
            -0.3751410185052615,
            0.3624615928814029,
            -1.0093112857612279,
            0.4872982076829906,
            -0.14252650296571248,
            -1.3199364967180776,
            -0.5626787157264147,
            -0.42051756453812184,
            0.7735145976391042,
            -0.7761970631625563,
            1.107955901064291,
            -0.8223098377114708,
            0.8764513358698134,
            -0.43853683792017073,
            0.38142904769009056
        ],
        [
            -2.4131313508266645,
            -3.26192598440014,
            3.140682929744604,
            -2.777860242845993,
            0.19404922215508652,
            1.6920041504108914,
            0.03865007106524909,
            2.380535094285362,
            0.5788324636289965,
            -2.656966152356579,
            3.4498433141193456,
            -3.618011356181931,
            -1.0309923289598515,
            1.9520302556680809,
            2.0192923218060392,
            -0.640251398590073,
            2.898692223607959,
            -2.283268844136164,
            -3.4179537746377777,
            2.044116748907489
        ],
        [
            0.5285948990886408,
            -0.16487815899612523,
            -0.5062194223575792,
            -0.43789381564345414,
            0.09284119855230312,
            -0.3216948600618844,
            -0.6444424873745445,
            0.19847303763137894,
            0.8296259653762957,
            -0.5526613445138651,
            -0.7558578972573761,
            -0.33947354906276916,
            0.1852660934609108,
            -0.5236993771301307,
            0.014234418868819095,
            0.29411281757881597,
            -0.9680187031892739,
            -0.262159306489983,
            0.7106400386187578,
            0.21988171840748452
        ],
        [
            0.8838997814871095,
            -0.09269348032868596,
            -1.2328333044164221,
            1.1116826108870252,
            -0.4400760139792973,
            -0.355340906413046,
            -0.2646848927270289,
            -0.879671647594097,
            -1.0966351342846634,
            1.3835667055958514,
            -1.1728390325145905,
            1.1374507065215649,
            0.7770066246032014,
            0.6143672232962418,
            -0.8058294386314869,
            0.6441061770526215,
            -1.1675105134396218,
            0.7533081896736145,
            1.0509422186581447,
            0.5137490303947664
        ],
        [
            0.016706971833455084,
            0.31440802128844875,
            -0.5301046876629508,
            -0.013288465307240127,
            -0.6694776034417939,
            -0.034997486765055284,
            -0.2526925562831345,
            0.9422491324193429,
            -0.30593878076444686,
            -0.04991430265991243,
            0.3653248448641119,
            0.04069283308067962,
            0.34179142380215094,
            0.31698498448619133,
            -0.4024724919842921,
            0.7500555833680986,
            0.2444363020000835,
            0.5768718889100476,
            0.016990536737945462,
            -0.667681731748036
        ]
    ],
    "hiddenBias": [
        -0.5155104897125897,
        0.23077015216269547,
        0.2092821474568398,
        -0.009695082711207616,
        -0.5528826784937961,
        0.05609075816043625,
        -0.9532789085900941,
        0.5628063238388615,
        -0.8363033867003176,
        0.126040369376491,
        -0.17983127133164975,
        0.2046793219764357,
        0.6277814716852463,
        -0.17240804514950128,
        0.22403012429568117,
        -0.37932819888389957,
        -0.6388388141986476,
        -0.2797199815151304,
        0.19029080511377616,
        -0.5703481387911622
    ],
    "outputWeights": [
        [
            2.284255935668452
        ],
        [
            3.1170976382159568
        ],
        [
            -3.4586713360304406
        ],
        [
            2.9382397732235326
        ],
        [
            0.14380138647375368
        ],
        [
            -1.8381819524207206
        ],
        [
            0.04628761390221585
        ],
        [
            -2.314591933108288
        ],
        [
            -0.9561197614309296
        ],
        [
            2.8602540131965237
        ],
        [
            -3.756172466225632
        ],
        [
            3.575198873580594
        ],
        [
            1.0013062839327942
        ],
        [
            -1.7329968057995453
        ],
        [
            -1.8954601330259802
        ],
        [
            1.2219250188753894
        ],
        [
            -3.0001751860707206
        ],
        [
            2.549242456842355
        ],
        [
            3.3953650914336975
        ],
        [
            -1.7499333396927081
        ]
    ],
    "outputBias": [
        -0.6960615283107753
    ]
}