{
    "hiddenWeights": [
        [
            -0.47464594881554706,
            -0.017587729792654893,
            0.43015173388075034,
            0.3188186893377698,
            -0.33618527384971775
        ],
        [
            -0.803574500654648,
            0.13232065356444334,
            0.6870196670740712,
            -0.374625852321103,
            -0.004830849601246021
        ],
        [
            0.31705714458913165,
            0.7829305427972193,
            -0.5200509217278091,
            -0.40553833841938663,
            0.9858444712616494
        ],
        [
            -1.1137181252371444,
            -1.6922584606778412,
            0.6548048698111462,
            -0.40101367026079043,
            -1.3014905706886954
        ],
        [
            0.5710699645283581,
            0.5913037478135177,
            -0.341311335340679,
            0.11046037303984016,
            1.9794534089764633
        ],
        [
            1.5762928915266263,
            2.9128146028707347,
            -2.826890628374128,
            -1.8406484449757474,
            2.7935173206137525
        ]
    ],
    "hiddenBias": [
        -0.17391975421119568,
        -0.9632492517843625,
        0.5740789342514566,
        0.348718941984272,
        -0.9741284289640532
    ],
    "outputWeights": [
        [
            1.358763740313193
        ],
        [
            3.072704689751469
        ],
        [
            -3.231071542193256
        ],
        [
            -1.8169619791131604
        ],
        [
            3.406396153442689
        ]
    ],
    "outputBias": [
        -1.4439212624637574
    ]
}