{
    "hiddenWeights": [
        [
            0.1690697989320513,
            0.08537044822500944,
            0.3454605694841371,
            0.6829592863114604,
            0.2787623735306011,
            0.5407081840819921,
            -0.47674255013625216
        ],
        [
            0.44949189411156765,
            -0.44307905296658573,
            0.22873777284399113,
            -0.05186793481067341,
            -0.2740275108219034,
            -0.03003474016426212,
            0.0621328322696453
        ],
        [
            0.06398207407145472,
            0.3841033732463258,
            -0.29969449826926076,
            0.03204808503984371,
            0.5849676922795096,
            0.20916155389340677,
            -0.031269223896369956
        ],
        [
            -0.03698133704807465,
            -0.917351235165129,
            -0.935734299255594,
            1.6273094569732445,
            -0.8704233840427502,
            -0.3361290747535056,
            0.6365337222662093
        ],
        [
            0.6307286818594153,
            1.0458183929994267,
            0.1404186294742325,
            -0.9738203441496693,
            -0.22416209347344973,
            -0.1711033301975323,
            -0.18442169220335758
        ],
        [
            -0.22512404983371,
            2.266731583873448,
            1.3023498980407666,
            -1.8363240116138362,
            1.3241063080246078,
            -0.09952680851897182,
            0.4901872794324647
        ]
    ],
    "hiddenBias": [
        0.03558780170125044,
        -0.5314790992905573,
        -0.07521125689573459,
        1.1001430520879076,
        -0.22788380989930165,
        -0.12645097246240905,
        -0.1586916017003767
    ],
    "outputWeights": [
        [
            0.06508252773326012
        ],
        [
            2.4156868260921995
        ],
        [
            1.2761412713121825
        ],
        [
            -2.7583991455692813
        ],
        [
            1.1789441073578413
        ],
        [
            -0.2554012520733042
        ],
        [
            -0.44328466621671353
        ]
    ],
    "outputBias": [
        -0.2333996420391366
    ]
}