{
    "hiddenWeights": [
        [
            -0.035998599917946836,
            0.5577782266292572,
            -0.2627737771616032,
            0.35016491987560683,
            -0.17629460721529022
        ],
        [
            -0.360928666596389,
            -0.09193726476395127,
            -0.058900495416756696,
            -0.11166764200922864,
            -0.2611499590831289
        ],
        [
            0.008680312950976725,
            -0.05215842552832337,
            0.5760303352818664,
            0.39387662611921304,
            0.30133768664940475
        ],
        [
            -1.0752543274506479,
            1.2694870273435852,
            -0.0911537420848505,
            -0.22584283493085747,
            -0.2228355951140791
        ],
        [
            0.8923654768396048,
            -0.8861114959151613,
            0.08218709120292828,
            0.4200039926050307,
            -0.26350451575690204
        ],
        [
            2.5915128137556622,
            -1.8798321304909267,
            -0.08027236529685514,
            1.3559003879034979,
            0.03815889980967326
        ]
    ],
    "hiddenBias": [
        -0.6555267383690172,
        1.0538524743190119,
        0.08925147346841704,
        -0.41269296969619623,
        0.0706818497139145
    ],
    "outputWeights": [
        [
            2.9181797594938406
        ],
        [
            -2.602160427723936
        ],
        [
            0.517303269325318
        ],
        [
            1.3506479995592906
        ],
        [
            0.37277173826775345
        ]
    ],
    "outputBias": [
        0.17680664665109525
    ]
}